digraph Tree {
node [shape=box, style="filled, rounded", color="black", fontname=helvetica] ;
edge [fontname=helvetica] ;
0 [label="sepal length (cm) <= 5.3\ngini = 0.66\nsamples = 93\nvalue = [43, 56, 51]\nclass = versicolor", fillcolor="#39e5810d"] ;
1 [label="petal width (cm) <= 0.8\ngini = 0.15\nsamples = 26\nvalue = [34, 3, 0]\nclass = setosa", fillcolor="#e58139e9"] ;
0 -> 1 [labeldistance=2.5, labelangle=45, headlabel="True"] ;
2 [label="gini = 0.0\nsamples = 24\nvalue = [34, 0, 0]\nclass = setosa", fillcolor="#e58139ff"] ;
1 -> 2 ;
3 [label="gini = 0.0\nsamples = 2\nvalue = [0, 3, 0]\nclass = versicolor", fillcolor="#39e581ff"] ;
1 -> 3 ;
4 [label="petal length (cm) <= 4.75\ngini = 0.57\nsamples = 67\nvalue = [9, 53, 51]\nclass = versicolor", fillcolor="#39e58108"] ;
0 -> 4 [labeldistance=2.5, labelangle=-45, headlabel="False"] ;
5 [label="petal width (cm) <= 0.7\ngini = 0.27\nsamples = 31\nvalue = [9, 47, 0]\nclass = versicolor", fillcolor="#39e581ce"] ;
4 -> 5 ;
6 [label="gini = 0.0\nsamples = 5\nvalue = [9, 0, 0]\nclass = setosa", fillcolor="#e58139ff"] ;
5 -> 6 ;
7 [label="gini = 0.0\nsamples = 26\nvalue = [0, 47, 0]\nclass = versicolor", fillcolor="#39e581ff"] ;
5 -> 7 ;
8 [label="sepal width (cm) <= 2.75\ngini = 0.19\nsamples = 36\nvalue = [0, 6, 51]\nclass = virginica", fillcolor="#8139e5e1"] ;
4 -> 8 ;
9 [label="petal length (cm) <= 4.95\ngini = 0.42\nsamples = 8\nvalue = [0, 3, 7]\nclass = virginica", fillcolor="#8139e592"] ;
8 -> 9 ;
10 [label="gini = 0.0\nsamples = 1\nvalue = [0, 1, 0]\nclass = versicolor", fillcolor="#39e581ff"] ;
9 -> 10 ;
11 [label="petal width (cm) <= 1.7\ngini = 0.35\nsamples = 7\nvalue = [0, 2, 7]\nclass = virginica", fillcolor="#8139e5b6"] ;
9 -> 11 ;
12 [label="petal width (cm) <= 1.5\ngini = 0.44\nsamples = 2\nvalue = [0, 2, 1]\nclass = versicolor", fillcolor="#39e5817f"] ;
11 -> 12 ;
13 [label="gini = 0.0\nsamples = 1\nvalue = [0, 0, 1]\nclass = virginica", fillcolor="#8139e5ff"] ;
12 -> 13 ;
14 [label="gini = 0.0\nsamples = 1\nvalue = [0, 2, 0]\nclass = versicolor", fillcolor="#39e581ff"] ;
12 -> 14 ;
15 [label="gini = 0.0\nsamples = 5\nvalue = [0, 0, 6]\nclass = virginica", fillcolor="#8139e5ff"] ;
11 -> 15 ;
16 [label="petal width (cm) <= 1.75\ngini = 0.12\nsamples = 28\nvalue = [0, 3, 44]\nclass = virginica", fillcolor="#8139e5ee"] ;
8 -> 16 ;
17 [label="petal length (cm) <= 5.05\ngini = 0.49\nsamples = 4\nvalue = [0, 3, 4]\nclass = virginica", fillcolor="#8139e540"] ;
16 -> 17 ;
18 [label="gini = 0.0\nsamples = 2\nvalue = [0, 3, 0]\nclass = versicolor", fillcolor="#39e581ff"] ;
17 -> 18 ;
19 [label="gini = 0.0\nsamples = 2\nvalue = [0, 0, 4]\nclass = virginica", fillcolor="#8139e5ff"] ;
17 -> 19 ;
20 [label="gini = 0.0\nsamples = 24\nvalue = [0, 0, 40]\nclass = virginica", fillcolor="#8139e5ff"] ;
16 -> 20 ;
}