digraph Tree {
node [shape=box, style="filled, rounded", color="black", fontname=helvetica] ;
edge [fontname=helvetica] ;
0 [label="sepal length (cm) <= 5.55\ngini = 0.66\nsamples = 95\nvalue = [55, 48, 47]\nclass = setosa", fillcolor="#e5813911"] ;
1 [label="petal width (cm) <= 0.8\ngini = 0.27\nsamples = 36\nvalue = [53, 9, 1]\nclass = setosa", fillcolor="#e58139d0"] ;
0 -> 1 [labeldistance=2.5, labelangle=45, headlabel="True"] ;
2 [label="gini = 0.0\nsamples = 30\nvalue = [53, 0, 0]\nclass = setosa", fillcolor="#e58139ff"] ;
1 -> 2 ;
3 [label="petal width (cm) <= 1.55\ngini = 0.18\nsamples = 6\nvalue = [0, 9, 1]\nclass = versicolor", fillcolor="#39e581e3"] ;
1 -> 3 ;
4 [label="gini = 0.0\nsamples = 5\nvalue = [0, 9, 0]\nclass = versicolor", fillcolor="#39e581ff"] ;
3 -> 4 ;
5 [label="gini = 0.0\nsamples = 1\nvalue = [0, 0, 1]\nclass = virginica", fillcolor="#8139e5ff"] ;
3 -> 5 ;
6 [label="petal width (cm) <= 1.7\ngini = 0.52\nsamples = 59\nvalue = [2, 39, 46]\nclass = virginica", fillcolor="#8139e525"] ;
0 -> 6 [labeldistance=2.5, labelangle=-45, headlabel="False"] ;
7 [label="petal length (cm) <= 4.95\ngini = 0.21\nsamples = 29\nvalue = [2, 39, 3]\nclass = versicolor", fillcolor="#39e581e0"] ;
6 -> 7 ;
8 [label="petal length (cm) <= 2.6\ngini = 0.09\nsamples = 26\nvalue = [2, 39, 0]\nclass = versicolor", fillcolor="#39e581f2"] ;
7 -> 8 ;
9 [label="gini = 0.0\nsamples = 2\nvalue = [2, 0, 0]\nclass = setosa", fillcolor="#e58139ff"] ;
8 -> 9 ;
10 [label="gini = 0.0\nsamples = 24\nvalue = [0, 39, 0]\nclass = versicolor", fillcolor="#39e581ff"] ;
8 -> 10 ;
11 [label="gini = 0.0\nsamples = 3\nvalue = [0, 0, 3]\nclass = virginica", fillcolor="#8139e5ff"] ;
7 -> 11 ;
12 [label="gini = 0.0\nsamples = 30\nvalue = [0, 0, 43]\nclass = virginica", fillcolor="#8139e5ff"] ;
6 -> 12 ;
}